{
  "version": "1.0.0",
  "weights": {
    "layer_0": [
      0.02062414187306811,
      -0.0009218789253934608,
      0.006727014322028135,
      -0.0158719148995908,
      0.0017402475259097959,
      -0.001978758256395924,
      0.008765028713605365,
      -0.012556013506523831,
      0.006575693956235269,
      0.020283334865062168,
      0.004219982614653531,
      0.012737014492721228,
      -0.007647045028017722,
      -0.002499355482699851,
      0.005716333327121743,
      -0.0030241799532276597,
      0.009278053450329699,
      -0.0033065853600446034,
      -0.005224649065946892,
      0.005367052878708605,
      0.02279282755508624,
      -0.008379724805919402,
      0.009190142610155947,
      0.003567667960336549,
      0.009207010987967735,
      -0.009973819510003276,
      -0.0010369353450232956,
      0.008794518419092972,
      -0.0016238962055237392,
      0.001170051815926267,
      0.009102121456864856,
      0.017841035297209467,
      -0.00428249529916802,
      0.020878360947104685,
      -0.001734685240034522,
      0.003009006287402393,
      0.005443380113441714,
      0.01562319204498012,
      0.010173132443151975,
      -0.0013041469258916012,
      -0.014415512753324733,
      -0.011476582245176701,
      -0.0016623805267016586,
      -0.005400332486497041,
      -0.000632914442311824,
      -0.016390962615126944,
      0.013355370352977358,
      -0.009198826363341413,
      -0.00036398651766411856,
      0.002873457130501996
    ],
    "layer_1": [
      0.0014404835725409185,
      0.0050637179463898455,
      0.0030046253261136685,
      -0.002639174995304786,
      -0.011387161746169513,
      -0.010693546173391303,
      0.007616497683637288,
      0.013596054192434088,
      -0.007728854157790073,
      -0.002799518942078692
    ]
  },
  "updated_at": 1761207986.688401
}